digraph Tree {
node [shape=box, style="filled, rounded", color="black", fontname=helvetica] ;
edge [fontname=helvetica] ;
0 [label=<timeFrame &le; 150.0<br/>mae = 1.062<br/>samples = 10500<br/>value = 2.0>, fillcolor="#f2c09c"] ;
1 [label=<pips2 &le; 11.5<br/>mae = 0.579<br/>samples = 3480<br/>value = 2.0>, fillcolor="#f2c09c"] ;
0 -> 1 [labeldistance=2.5, labelangle=45, headlabel="True"] ;
2 [label=<volume_1 &le; 2.5<br/>mae = 0.406<br/>samples = 1508<br/>value = 3.0>, fillcolor="#eca06a"] ;
1 -> 2 ;
3 [label=<mae = 0.626<br/>samples = 286<br/>value = 4.0>, fillcolor="#e58139"] ;
2 -> 3 ;
4 [label=<volume_2 &le; 0.25<br/>mae = 0.304<br/>samples = 1222<br/>value = 3.0>, fillcolor="#eca06a"] ;
2 -> 4 ;
5 [label=<mae = 0.496<br/>samples = 254<br/>value = 2.0>, fillcolor="#f2c09c"] ;
4 -> 5 ;
6 [label=<volume_3 &le; 0.35<br/>mae = 0.241<br/>samples = 968<br/>value = 3.0>, fillcolor="#eca06a"] ;
4 -> 6 ;
7 [label=<mae = 0.333<br/>samples = 303<br/>value = 3.0>, fillcolor="#eca06a"] ;
6 -> 7 ;
8 [label=<volume_3 &le; 0.65<br/>mae = 0.198<br/>samples = 665<br/>value = 3.0>, fillcolor="#eca06a"] ;
6 -> 8 ;
9 [label=<mae = 0.2<br/>samples = 285<br/>value = 3.0>, fillcolor="#eca06a"] ;
8 -> 9 ;
10 [label=<mae = 0.197<br/>samples = 380<br/>value = 3.0>, fillcolor="#eca06a"] ;
8 -> 10 ;
11 [label=<volume_1 &le; 2.5<br/>mae = 0.272<br/>samples = 1972<br/>value = 2.0>, fillcolor="#f2c09c"] ;
1 -> 11 ;
12 [label=<mae = 0.51<br/>samples = 402<br/>value = 3.0>, fillcolor="#eca06a"] ;
11 -> 12 ;
13 [label=<volume_2 &le; 0.75<br/>mae = 0.137<br/>samples = 1570<br/>value = 2.0>, fillcolor="#f2c09c"] ;
11 -> 13 ;
14 [label=<volume_1 &le; 4.5<br/>mae = 0.136<br/>samples = 1095<br/>value = 2.0>, fillcolor="#f2c09c"] ;
13 -> 14 ;
15 [label=<mae = 0.275<br/>samples = 280<br/>value = 2.0>, fillcolor="#f2c09c"] ;
14 -> 15 ;
16 [label=<pips2 &le; 14.5<br/>mae = 0.088<br/>samples = 815<br/>value = 2.0>, fillcolor="#f2c09c"] ;
14 -> 16 ;
17 [label=<mae = 0.196<br/>samples = 255<br/>value = 2.0>, fillcolor="#f2c09c"] ;
16 -> 17 ;
18 [label=<mae = 0.039<br/>samples = 560<br/>value = 2.0>, fillcolor="#f2c09c"] ;
16 -> 18 ;
19 [label=<pips3 &le; 11.5<br/>mae = 0.139<br/>samples = 475<br/>value = 2.0>, fillcolor="#f2c09c"] ;
13 -> 19 ;
20 [label=<mae = 0.224<br/>samples = 219<br/>value = 2.0>, fillcolor="#f2c09c"] ;
19 -> 20 ;
21 [label=<mae = 0.066<br/>samples = 256<br/>value = 2.0>, fillcolor="#f2c09c"] ;
19 -> 21 ;
22 [label=<timeFrame &le; 840.0<br/>mae = 0.822<br/>samples = 7020<br/>value = 1.0>, fillcolor="#f8e0ce"] ;
0 -> 22 [labeldistance=2.5, labelangle=-45, headlabel="False"] ;
23 [label=<volume_3 &le; 0.35<br/>mae = 0.024<br/>samples = 3531<br/>value = 0.0>, fillcolor="#ffffff"] ;
22 -> 23 ;
24 [label=<volume_1 &le; 4.5<br/>mae = 0.008<br/>samples = 1042<br/>value = 0.0>, fillcolor="#ffffff"] ;
23 -> 24 ;
25 [label=<mae = 0.019<br/>samples = 412<br/>value = 0.0>, fillcolor="#ffffff"] ;
24 -> 25 ;
26 [label=<mae = 0.0<br/>samples = 630<br/>value = 0.0>, fillcolor="#ffffff"] ;
24 -> 26 ;
27 [label=<pips3 &le; 3.5<br/>mae = 0.031<br/>samples = 2489<br/>value = 0.0>, fillcolor="#ffffff"] ;
23 -> 27 ;
28 [label=<mae = 0.02<br/>samples = 248<br/>value = 0.0>, fillcolor="#ffffff"] ;
27 -> 28 ;
29 [label=<volume_2 &le; 0.15<br/>mae = 0.033<br/>samples = 2241<br/>value = 0.0>, fillcolor="#ffffff"] ;
27 -> 29 ;
30 [label=<mae = 0.014<br/>samples = 212<br/>value = 0.0>, fillcolor="#ffffff"] ;
29 -> 30 ;
31 [label=<pips2 &le; 3.5<br/>mae = 0.034<br/>samples = 2029<br/>value = 0.0>, fillcolor="#ffffff"] ;
29 -> 31 ;
32 [label=<mae = 0.154<br/>samples = 214<br/>value = 0.0>, fillcolor="#ffffff"] ;
31 -> 32 ;
33 [label=<mae = 0.02<br/>samples = 1815<br/>value = 0.0>, fillcolor="#ffffff"] ;
31 -> 33 ;
34 [label=<volume_1 &le; 5.5<br/>mae = 0.621<br/>samples = 3489<br/>value = 2.0>, fillcolor="#f2c09c"] ;
22 -> 34 ;
35 [label=<volume_1 &le; 1.5<br/>mae = 0.494<br/>samples = 1813<br/>value = 2.0>, fillcolor="#f2c09c"] ;
34 -> 35 ;
36 [label=<mae = 0.528<br/>samples = 373<br/>value = 3.0>, fillcolor="#eca06a"] ;
35 -> 36 ;
37 [label=<pips3 &le; 5.5<br/>mae = 0.368<br/>samples = 1440<br/>value = 2.0>, fillcolor="#f2c09c"] ;
35 -> 37 ;
38 [label=<mae = 0.474<br/>samples = 285<br/>value = 1.0>, fillcolor="#f8e0ce"] ;
37 -> 38 ;
39 [label=<volume_1 &le; 2.5<br/>mae = 0.324<br/>samples = 1155<br/>value = 2.0>, fillcolor="#f2c09c"] ;
37 -> 39 ;
40 [label=<mae = 0.433<br/>samples = 263<br/>value = 2.0>, fillcolor="#f2c09c"] ;
39 -> 40 ;
41 [label=<mae = 0.291<br/>samples = 892<br/>value = 2.0>, fillcolor="#f2c09c"] ;
39 -> 41 ;
42 [label=<volume_3 &le; 0.85<br/>mae = 0.242<br/>samples = 1676<br/>value = 1.0>, fillcolor="#f8e0ce"] ;
34 -> 42 ;
43 [label=<volume_2 &le; 0.25<br/>mae = 0.168<br/>samples = 1333<br/>value = 1.0>, fillcolor="#f8e0ce"] ;
42 -> 43 ;
44 [label=<mae = 0.033<br/>samples = 299<br/>value = 1.0>, fillcolor="#f8e0ce"] ;
43 -> 44 ;
45 [label=<pips3 &le; 5.5<br/>mae = 0.207<br/>samples = 1034<br/>value = 1.0>, fillcolor="#f8e0ce"] ;
43 -> 45 ;
46 [label=<mae = 0.028<br/>samples = 213<br/>value = 1.0>, fillcolor="#f8e0ce"] ;
45 -> 46 ;
47 [label=<mae = 0.253<br/>samples = 821<br/>value = 1.0>, fillcolor="#f8e0ce"] ;
45 -> 47 ;
48 [label=<mae = 0.469<br/>samples = 343<br/>value = 2.0>, fillcolor="#f2c09c"] ;
42 -> 48 ;
}